{"weights": [{"rows": 5, "columns": 9, "values": [[-0.47810798655069053, 0.06696637776898366, 0.18206076218158188, -0.46157307102366985, -0.028217630387267507, 0.6428387222901641, 0.8120698325957236, 0.11405889333460972, 0.2723261090146715], [0.3200849211261079, 0.1865797347512267, -0.4232836768338885, 0.5908307590188672, -0.3168190634644555, -0.4479352060768002, 0.15135043324567246, 0.22661196826415028, -0.28834211086159933], [0.5584563006570653, 0.6543030056609463, -0.6804913774064315, 0.18514143952413098, -0.454307596982764, -0.8998444900511966, -0.20267175977944793, 0.007631011493808176, -0.26503611004626043], [-0.06131093802608788, 0.6263273996551624, 0.10207036058319997, 0.4357220656401379, 0.38505834723200033, -0.5583926124424418, 0.13656227969936138, -0.39982967050980567, -0.07792344622021276], [-0.19570472763672841, -0.15546442624714327, -0.24163320697437263, -0.08112742598585365, -0.7441542833102096, 0.6546368757192794, -0.34806103716465087, -0.18190428046945495, 0.04370328476889388]]}, {"rows": 4, "columns": 5, "values": [[0.8944683514973462, -0.6909211580278367, -0.6289525807795158, -0.10148142023487586, 0.7717351887996602], [-0.13730934620694088, -0.6928085326776211, -0.6614527377787234, 0.7263788197003048, 0.24760132322828404], [0.38114189937920956, 0.23523987672691957, 0.08168889373748814, 0.5321440809499883, 0.21925822190899819], [-0.7363544705576928, 0.018825234152872006, -0.511146979984335, -0.3596618251748388, 0.48700497241851104]]}], "biases": [{"rows": 5, "columns": 1, "values": [[-0.29704180832817245], [0.32695196449849356], [-0.7696375428073884], [0.6404690164488352], [0.20057449526540685]]}, {"rows": 4, "columns": 1, "values": [[0.36192555310265495], [0.6333255446108528], [-0.44639532564681533], [0.5886574884144707]]}, {"rows": 5, "columns": 9, "values": [[0, 0, 0, 0, 0, 0, 0, 0, 0], [0, 0, 0, 0, 0, 0, 0, 0, 0], [0, 0, 0, 0, 0, 0, 0, 0, 0], [0, 0, 0, 0, 0, 0, 0, 0, 0], [0, 0, 0, 0, 0, 0, 0, 0, 0]]}, {"rows": 4, "columns": 5, "values": [[0, 0, 0, 0, 0], [0, 0, 0, 0, 0], [0, 0, 0, 0, 0], [0, 0, 0, 0, 0]]}], "Vweight": [], "Vbias": [{"rows": 5, "columns": 1, "values": [[0], [0], [0], [0], [0]]}, {"rows": 4, "columns": 1, "values": [[0], [0], [0], [0]]}]}