{"weights": [{"rows": 5, "columns": 9, "values": [[-0.43327844119556846, 0.06696637776898368, 0.14930377207312392, -0.4615730710236699, -0.028217630387267507, 0.6453448025011219, 0.8120698325957237, 0.11405889333460972, 0.2723261090146716], [0.30331780666737673, 0.1935361852609513, -0.42328367683388857, 0.5908307590188672, -0.31681906346445543, -0.431832327430695, 0.15135043324567246, 0.2266119682641503, -0.28834211086159933], [0.5671715817558867, 0.6543030056609465, -0.6804913774064314, 0.18514143952413098, -0.4543075969827641, -0.29951563824282457, -0.2026717597794479, 0.007631011493808177, -0.26476893332959944], [0.017135344438696465, 0.6389235746092502, 0.058447157955999515, 0.43572206564013793, 0.40000831746296167, -0.5583926124424418, 0.13656227969936138, -0.06049487770057716, -0.07792344622021277], [-0.19570472763672844, -0.1554644262471433, -0.2416332069743726, -0.08112742598585365, -0.7441542833102098, 0.6546368757192794, -0.3480610371646509, -0.2684167601269083, -0.01625592089686872]]}, {"rows": 4, "columns": 5, "values": [[0.894468351497346, -0.6909211580278367, -0.3002951507412895, -0.10148142023487587, 0.7717351887996602], [-0.13730934620694088, -0.692808532677621, -0.6614527377787235, 0.7263788197003049, 0.24760132322828407], [0.3811418993792095, 0.23658533597028394, 0.08168889373748814, 0.5333183914593367, 0.22029973411742565], [-0.7363544705576929, 0.018825234152872006, -0.5226224613133529, -0.3596618251748388, 0.48700497241851104]]}], "biases": [{"rows": 5, "columns": 1, "values": [[-0.29704180832817256], [0.3269519644984935], [-0.7696375428073883], [0.6404690164488354], [0.20057449526540683]]}, {"rows": 4, "columns": 1, "values": [[0.36192555310265506], [0.6333255446108529], [-0.44639532564681533], [0.588657488414471]]}, {"rows": 5, "columns": 9, "values": [[0, 0, 0, 0, 0, 0, 0, 0, 0], [0, 0, 0, 0, 0, 0, 0, 0, 0], [0, 0, 0, 0, 0, 0, 0, 0, 0], [0, 0, 0, 0, 0, 0, 0, 0, 0], [0, 0, 0, 0, 0, 0, 0, 0, 0]]}, {"rows": 4, "columns": 5, "values": [[0, 0, 0, 0, 0], [0, 0, 0, 0, 0], [0, 0, 0, 0, 0], [0, 0, 0, 0, 0]]}], "Vweight": [], "Vbias": [{"rows": 5, "columns": 1, "values": [[0], [0], [0], [0], [0]]}, {"rows": 4, "columns": 1, "values": [[0], [0], [0], [0]]}]}